{
    "bias": 1.0,
    "learningRate": 0.05,
    "momentum": 1.0,
    "topology": [
        784,
        16,
        16,
        10
    ],
    "weights": [
        [
            [
                8.410403371160792e-05,
                -2.137988159534054e-05,
                -2.1783347944010346e-05,
                -3.9914987473636746e-05,
                -3.821628979029987e-05,
                1.1689359123663983e-05,
                1.1013067043925924e-05,
                -8.068123298423302e-05,
                -4.359764902720295e-05,
                -3.135283254819172e-05,
                6.450120356958226e-07,
                7.171728804583761e-05,
                -8.556060920156863e-06,
                -4.432152245999075e-05,
                -4.716817217040074e-05,
                -5.170502268402433e-05
            ],
            [
                2.4298028824839898e-05,
                7.58325336524194e-05,
                2.2297032339488096e-05,
                9.277985908670354e-05,
                9.184048153806393e-05,
                -4.564900723577428e-05,
                -9.198224998487414e-05,
                2.791626916263933e-05,
                -5.918486708121468e-05,
                4.303123842678038e-05,
                -2.8091109764597896e-05,
                -2.8560800182333626e-05,
                8.891179092511687e-05,
                7.321035116749057e-05,
                7.224990066482266e-05,
                2.2223892638937342e-05
            ],
            [
                -2.2394673346880873e-05,
                5.913260769623901e-05,
                -6.441911177518542e-05,
                -3.6744482194687485e-06,
                7.299627778564875e-05,
                7.073573829860981e-05,
                6.669575672282675e-05,
                3.6552978382493306e-05,
                -2.4468186993496395e-05,
                5.170788673143787e-05,
                -2.7675200248760074e-05,
                -2.4785793148396923e-05,
                1.0995752172380003e-05,
                -7.95485252594784e-05,
                7.155858924866349e-05,
                -5.089789763056424e-05
            ],
            [
                -3.0255603937336177e-05,
                7.247434212747708e-05,
                -8.235751264661754e-05,
                8.423332777831334e-05,
                5.073776290937943e-05,
                -7.070936853043131e-05,
                -6.250160215605426e-05,
                -2.8481584141123846e-05,
                -5.676106668527998e-05,
                -2.888170612037712e-06,
                -2.651790393377335e-05,
                5.1978468134973693e-05,
                6.431418674495036e-06,
                -7.350309216847064e-05,
                -9.714045699610324e-06,
                6.498104430680836e-07
            ],
            [
                6.58807925082485e-05,
                9.564847816191263e-05,
                9.614304200985636e-05,
                6.9141526763338916e-06,
                9.391984984307023e-05,
                -9.25534064527612e-05,
                1.5134198596417097e-05,
                -1.3479867735384737e-05,
                -2.9808254417700865e-05,
                -3.6472012822773997e-06,
                -8.817481853818526e-05,
                -9.027743341761568e-05,
                -5.823147509520998e-06,
                7.365548792411277e-05,
                9.097785940630694e-05,
                6.427135236685022e-05
            ],
            [
                -8.364073794681142e-05,
                -8.122584120189809e-05,
                -7.459422944472151e-05,
                -3.9900609191229967e-05,
                -4.038871523263198e-05,
                5.664904439380319e-05,
                -1.5374686184760507e-07,
                3.2293891287368546e-05,
                9.555940016653306e-05,
                -9.864307117520624e-05,
                6.198926037372405e-06,
                -8.678809388185902e-05,
                -9.047756738186806e-05,
                9.230452826514874e-05,
                5.301219020419628e-05,
                -6.863266126455032e-05
            ],
            [
                4.127910826412158e-05,
                7.214442559902948e-05,
                -6.5415209952857084e-06,
                -6.673962088480863e-05,
                7.095557607801827e-05,
                -9.793295997071687e-05,
                -8.491852893607823e-05,
                7.055764879857424e-05,
                -1.753813484046935e-05,
                8.963681330416915e-05,
                -9.560431578913697e-05,
                7.009338703220867e-05,
                5.5140193353826796e-05,
                5.8430611548171676e-05,
                6.993978391416475e-05,
                -6.731845631821667e-05
            ],
            [
                2.5927972332887313e-05,
                1.8785448738123134e-06,
                -8.022769834146177e-05,
                -9.43900550629196e-05,
                -2.5757575427050197e-06,
                -6.800893070655934e-05,
                -2.418495970659155e-05,
                5.037228428376881e-07,
                4.226181346701862e-05,
                -6.603798039183867e-06,
                1.2838555441699336e-05,
                7.58951510039924e-05,
                -2.6154092918884806e-05,
                5.996342214994287e-05,
                -5.544960903542666e-05,
                -3.8414513607508617e-05
            ],
            [
                -1.3496693119935857e-05,
                5.606971648604822e-05,
                -8.06704420155011e-06,
                7.922113642092885e-05,
                3.84140815798027e-05,
                5.2055964326920293e-05,
                6.761604636547104e-05,
                7.472909366911117e-06,
                3.507003066753103e-05,
                1.1733745202932935e-05,
                -1.8109972829189437e-05,
                -4.947542045171711e-05,
                -3.676689755066478e-05,
                8.454852444692282e-05,
                -7.341305698946193e-05,
                7.847119038189368e-05
            ],
            [
                -9.267068892405325e-05,
                9.114033526596645e-05,
                9.029089324486852e-05,
                4.490288048223375e-05,
                6.405353009933757e-05,
                6.26896358336302e-05,
                9.879096766216084e-06,
                -9.847909300893766e-05,
                9.155415149852162e-05,
                4.7479091636805644e-05,
                9.121496763595784e-05,
                -2.5861186918919323e-06,
                2.4278184049599333e-05,
                6.802499653363758e-05,
                1.775027170350953e-05,
                7.214393283350576e-05
            ],
            [
                5.55379437352315e-05,
                -4.199328361548864e-05,
                -1.7015304195307777e-05,
                -6.21784162721371e-05,
                -7.263471058599336e-05,
                -3.654399047267681e-05,
                2.9828920364029604e-05,
                6.017524531830457e-05,
                3.207548247988839e-05,
                -3.751962916656056e-05,
                7.8305053005721e-05,
                2.9680808393277625e-05,
                6.392089843885344e-05,
                -4.1375688345471744e-05,
                7.647991134506061e-05,
                1.125548262436739e-06
            ],
            [
                -6.245771299026702e-05,
                -6.105092791179022e-05,
                -8.927777612872535e-06,
                7.517083420688612e-05,
                -3.7447033823752836e-05,
                -4.68438102126293e-05,
                9.469501924448415e-06,
                -2.0126369262849007e-05,
                7.575283532371242e-05,
                -9.68520340549984e-05,
                -4.276536144713431e-05,
                -8.087864371913632e-05,
                -5.6168782689571895e-06,
                -6.045806983951854e-05,
                -1.231354121214555e-05,
                7.420827998042723e-05
            ],
            [
                -3.4488805534541386e-05,
                -2.8571631892001605e-05,
                -7.693920039756015e-05,
                -0.0017816338586060152,
                0.009884357984077023,
                -4.099281487385718e-05,
                -5.672839067743052e-05,
                -0.0007232942356636289,
                -0.00046738361187323956,
                -2.169041836424147e-05,
                5.696620123154444e-05,
                -0.0023995065393428187,
                3.531273222929846e-05,
                -0.0001283653456762364,
                -5.903903926910979e-05,
                -6.505792406450848e-05
            ],
            [
                -7.867556134060754e-05,
                -0.00010087304571295784,
                -0.0001573531808654015,
                -0.004273338781239125,
                0.02017739685535496,
                -0.00010164256895225867,
                -0.00029333208564618274,
                -0.003117803903914174,
                7.708559601796064e-05,
                -0.00029016518502607334,
                -0.00024414624884836183,
                -0.005436395022023963,
                -0.00038894878481510626,
                -0.0001311491987898496,
                -8.230070235331966e-05,
                -0.00016026443864625235
            ],
            [
                -6.986735442360003e-05,
                7.763084179430196e-06,
                -2.9391325494511552e-05,
                -0.00023391597393511494,
                -0.0015510167771848823,
                -9.38975144731257e-05,
                -3.447921478968557e-05,
                -0.0016659809399661722,
                0.001049322245191459,
                -0.00023923706809915544,
                -0.0003709522230174529,
                -3.500952754221274e-05,
                -0.00041560565238864814,
                -0.00011810172280468001,
                -6.732435208489044e-05,
                1.7048968910512752e-05
            ],
            [
                -5.21863747915811e-05,
                7.696430249247353e-06,
                -5.073898927959351e-05,
                -5.8289163247735924e-05,
                -1.9598170245490073e-05,
                3.4224568487709614e-05,
                4.087603890955279e-05,
                -0.0001350583283586621,
                0.00010196718621112907,
                -1.1882192690640666e-05,
                -7.983136567576292e-05,
                9.147210982600076e-05,
                -4.622267782375024e-05,
                -2.6010624216344006e-05,
                1.9181682754229155e-05,
                4.0511709637530825e-05
            ],
            [
                1.741556935236515e-05,
                7.528537594621868e-06,
                1.2745574497978731e-05,
                9.452292855114361e-05,
                5.588390083897977e-05,
                -3.37437663245968e-05,
                9.747902515399143e-05,
                5.389254314228961e-05,
                -9.976211325234516e-05,
                -9.044651091277101e-06,
                3.047984743512036e-05,
                2.204936096424304e-05,
                3.879685996682984e-05,
                4.0084430479334584e-05,
                9.555834491927247e-05,
                -5.192667353735762e-05
            ],
            [
                -9.265538771196133e-05,
                8.66981315400694e-05,
                -2.430904669098112e-05,
                8.014368903067023e-05,
                -8.098813828927428e-06,
                -9.855520519181316e-05,
                2.306636101077421e-05,
                -7.093263290171856e-05,
                -9.564202871231431e-05,
                -4.9360082982302455e-05,
                5.2184786891671615e-05,
                -9.604880051449482e-05,
                -7.430240161408435e-05,
                -9.372085530000716e-06,
                -7.727575141833518e-05,
                9.091907906775842e-05
            ],
            [
                -7.589549541564971e-05,
                -5.688986673110432e-05,
                9.452561036337819e-05,
                5.326779191865568e-05,
                -9.292177446826247e-05,
                2.055937134102937e-05,
                4.321986017201053e-05,
                -2.8192890476448035e-05,
                -8.527285811298153e-06,
                4.5368575800458e-05,
                8.622859039889365e-05,
                -2.9156706608590233e-07,
                2.143200424955067e-05,
                -4.3298261438273555e-05,
                5.7576101340009984e-05,
                5.232410683342509e-05
            ],
            [
                2.0130087956667312e-05,
                -1.8110514015031847e-06,
                8.549105607119085e-05,
                -9.253735768772078e-05,
                6.724712010601281e-05,
                9.960717175279745e-05,
                -8.625351375795629e-05,
                8.804262109409786e-05,
                4.574770661880707e-06,
                -7.246018851662278e-05,
                1.9262468502645105e-05,
                5.690332958761605e-05,
                6.0299608311588466e-05,
                -1.6181183080215037e-05,
                8.119898265453495e-05,
                2.6915715468790667e-05
            ],
            [
                -5.729797280462584e-05,
                -4.9571509563747944e-05,
                2.9684056444550445e-05,
                -1.7122535608820306e-05,
                6.296412740424942e-05,
                -4.347358551931297e-05,
                -3.872868796488619e-05,
                -8.665009570893525e-05,
                -4.941483266035987e-05,
                -3.2963343624806455e-05,
                -5.453917592171994e-05,
                -1.2592916783097765e-05,
                5.1982223425620525e-05,
                -6.168502881517529e-05,
                -9.859495129316915e-05,
                5.1820561452635945e-05
            ],
            [
                -6.285758283615472e-05,
                4.561977487282301e-05,
                -6.808563355992683e-05,
                3.531494402851371e-05,
                5.023969031600876e-05,
                1.753426003728325e-05,
                -6.508834276084499e-05,
                5.070487334145225e-05,
                6.691436014497102e-05,
                3.534809307136035e-05,
                3.8918899861784285e-05,
                5.009674833864228e-05,
                6.248750846210521e-05,
                8.976692037764075e-05,
                4.464490196168884e-06,
                7.219490248756345e-07
            ],
            [
                -9.900420881384099e-05,
                -2.528567114671928e-06,
                -1.1141390729242818e-05,
                -8.83505804795372e-05,
                -5.6150380686741546e-05,
                -5.909844669637832e-05,
                4.1487959388775323e-05,
                6.871168303590262e-05,
                -8.755716161079277e-05,
                9.805579044691361e-05,
                1.7875900109976125e-05,
                -8.08936316755092e-06,
                -5.069719843763292e-05,
                -4.2991087359506485e-05,
                -4.533349456294071e-05,
                -6.433485584637081e-05
            ],
            [
                -1.4206772798721425e-06,
                -6.39781667655486e-06,
                1.5446233268714797e-05,
                1.0582609298892916e-05,
                4.639165368445563e-05,
                -6.615820340450049e-05,
                3.7481936563193524e-06,
                6.140241547500978e-05,
                -2.9400500988148424e-05,
                -8.253877208740695e-06,
                6.412640303995726e-05,
                -4.710196709059863e-05,
                -8.716549570430792e-06,
                6.864185770935322e-05,
                7.577587427852142e-07,
                4.0128792643996195e-05
            ],
            [
                1.0447696817022801e-05,
                -1.7851675492818746e-05,
                2.1568933709044876e-05,
                -3.418629740533746e-05,
                1.103105109362164e-05,
                1.8770424770791008e-05,
                7.928578424106988e-06,
                -3.7275983438674013e-05,
                4.532552653632754e-06,
                9.339448793286429e-06,
                1.594717424871248e-05,
                -6.596913089148686e-06,
                -1.5458990561428984e-05,
                4.4301475290677687e-05,
                -3.611430562021593e-05,
                8.566433075613321e-05
            ],
            [
                2.6871862033036364e-05,
                -2.3526007690895804e-05,
                -6.574967592684306e-05,
                -9.336110490370744e-05,
                5.2522780001193175e-05,
                -1.381611966400473e-05,
                -2.9214613442315223e-05,
                3.204885186066754e-05,
                9.110338563578413e-05,
                3.720882448365161e-05,
                8.647641097265755e-05,
                6.775078066360674e-05,
                9.139292600390581e-07,
                -6.810472386517514e-06,
                4.802038609289415e-05,
                -4.107913465923694e-05
            ],
            [
                9.843362060004891e-05,
                -3.500688068049752e-07,
                -3.025047806663103e-05,
                3.830511547465582e-05,
                -2.9775557616109556e-05,
                -4.8516120590675074e-05,
                6.044256193882986e-05,
                5.197311892696052e-05,
                -3.1954117342322246e-06,
                5.4646408027401124e-05,
                8.136331667901725e-06,
                2.6971733115583644e-05,
                -2.042763420643357e-05,
                7.342401914074599e-05,
                -1.9262901596505346e-05,
                9.148910809706689e-05
            ],
            [
                -8.40193795955717e-05,
                3.055237496765774e-06,
                8.222411091018829e-05,
                -6.444528459469972e-06,
                -8.420584651020182e-05,
                -9.24610407947795e-05,
                -8.324732883527094e-05,
                8.458308842918077e-05,
                -1.6278699995873083e-06,
                8.764277413965387e-05,
                -8.656867981833135e-05,
                4.178520523442343e-05,
                2.4387351213881378e-05,
                -6.485980666979953e-05,
                -3.586657706830255e-05,
                6.482486484288948e-05
            ],
            [
                3.5222235157633515e-05,
                6.036585961493065e-05,
                -5.316752133303484e-05,
                -2.5529879625303185e-05,
                -8.643291172221032e-05,
                -6.215375178406478e-05,
                8.499882417643222e-05,
                -9.240001381692198e-05,
                -9.750349317642142e-05,
                -3.500229986176132e-05,
                8.274854623088375e-05,
                1.2960969398320606e-05,
                8.323241296886331e-05,
                7.153491157850057e-05,
                4.103853327506791e-05,
                -4.1684168672705925e-05
            ],
            [
                -3.6683518987187916e-05,
                -9.445365970432021e-05,
                -7.991425327996956e-06,
                -4.913124792471415e-05,
                -6.142006578833204e-05,
                -2.220346342422219e-06,
                9.743043027661182e-05,
                -8.321798009687504e-05,
                9.119120948708453e-05,
                -2.3650949420390402e-05,
                8.754896879654345e-05,
                -7.501116258500745e-05,
                -9.223604015738243e-05,
                -4.372586834466361e-06,
                7.745922801174008e-05,
                -8.575313477402217e-06
            ],
            [
                -8.474534954310125e-06,
                9.602955656898948e-05,
                -1.8316518542382744e-06,
                4.1197888723660736e-05,
                8.886847957681159e-06,
                5.3487450870086e-05,
                -5.845819989968283e-06,
                7.049439809413328e-06,
                -6.678536632825086e-05,
                -3.236425120455174e-05,
                2.7870909011234803e-05,
                -1.9679857768729593e-05,
                -5.323223378172668e-05,
                -9.66061159625373e-05,
                7.53665670496365e-05,
                4.018343186206127e-05
            ],
            [
                4.753587148972672e-05,
                -8.75670950372112e-05,
                -5.89103842903806e-05,
                -6.547064450265275e-05,
                -2.082750386685828e-05,
                -5.506155658570831e-05,
                8.916654484794486e-05,
                7.460165293641883e-05,
                4.641008273449791e-05,
                1.1916937387825618e-05,
                1.1053725892060413e-05,
                -2.199444911253291e-05,
                1.772256288994603e-05,
                8.435822369477545e-05,
                -8.345671596174158e-05,
                6.268212162573822e-05
            ],
            [
                7.526829872713444e-05,
                -4.720727475866183e-05,
                1.1264304264699596e-05,
                -3.473007391802121e-05,
                4.410179899786071e-05,
                9.40366508666777e-05,
                6.950018049981474e-05,
                -9.803162413701918e-05,
                7.005207319748936e-05,
                7.443438230077578e-05,
                -9.358262377165222e-05,
                -8.626034709981328e-05,
                -5.246747670783542e-05,
                1.2579862293676464e-05,
                -5.5517877854978736e-05,
                4.378841071449908e-05
            ],
            [
                5.2330111619979334e-05,
                7.919757203992691e-05,
                0.0004987079004892516,
                -0.0002020418531932102,
                -3.3764463598890516e-05,
                -8.253300446724537e-05,
                0.0005088892105872031,
                -0.008283816227163707,
                -9.355930546226792e-05,
                -2.1254941673243634e-05,
                5.6989662060711605e-05,
                2.2615638558871042e-05,
                -3.7703053010678947e-07,
                6.0258641735030484e-05,
                -7.831325775023466e-05,
                -8.978972646600957e-05
            ],
            [
                0.00011012243169946563,
                0.00010983823024431309,
                0.05647177525280923,
                -0.028087483448994,
                -0.005990939177217032,
                9.096723053753953e-06,
                0.008180394660381514,
                -0.313735504954937,
                -2.9247750104723902e-05,
                0.0006959954872564706,
                0.0003963794215081911,
                -0.000997301108133331,
                1.431502819765481e-05,
                8.957399376470538e-05,
                6.932336180082556e-06,
                -5.1198425070072335e-05
            ],
            [
                -5.652664184960039e-05,
                -3.0271578856871347e-06,
                0.11121772292350685,
                -0.0465329200751339,
                -0.008556040926669048,
                -4.624780334976278e-06,
                0.006430560261729287,
                -0.49637115605371473,
                2.766259393081196e-05,
                0.001925516052151364,
                0.0013315622042430419,
                -0.0023775796736830476,
                0.000192469290913456,
                3.298022539039628e-05,
                -6.370586408054273e-05,
                2.9937213330008354e-05
            ],
            [
                -0.006488223235721743,
                -0.00494312361162778,
                0.13637348191412568,
                -0.1354350804526463,
                -0.016971939902108314,
                -0.006379999696085731,
                -0.006782517977097216,
                -0.4177386261520987,
                -0.002107164447781365,
                0.005518689107219617,
                0.0050888992678286595,
                -0.010217968732507887,
                0.0005488532629760344,
                -0.006917694465573095,
                -0.005625464234184972,
                -0.006051364382849467
            ],
            [
                -0.005432583109112873,
                -0.004302234059941985,
                0.027393574383065042,
                -0.0388085507033651,
                0.0020999913076527777,
                -0.007885480786579578,
                -0.008045683897563893,
                -0.13177954355915883,
                -0.002304013409717245,
                0.008713320702756424,
                0.006609091979398464,
                -0.006344180911163217,
                -0.00010438133551880163,
                -0.005774866828139423,
                -0.0049290815282730565,
                -0.005289429084837508
            ],
            [
                -0.004264174495904124,
                -0.003344001906068923,
                0.0060636761263506535,
                -0.03710025134743228,
                0.007872485168221801,
                -0.02037295079206876,
                -0.01897370903965079,
                -0.13604071394493386,
                -0.0036546384230658133,
                0.05775682921137143,
                0.058277559319177726,
                -0.008397728922633274,
                9.07837415238585e-05,
                -0.004335790076632667,
                -0.0038641981776140677,
                -0.004187054453329229
            ],
            [
                0.0003417900055033358,
                -0.002077735218908119,
                0.04211864174334118,
                -0.04927797973302269,
                0.010663859561340576,
                -0.008373949911931727,
                -0.024399137463807095,
                -0.3597750205875463,
                -0.006887507356489916,
                0.03952208392070142,
                0.02026581445756983,
                -0.004588897997030427,
                -0.0006552498766737431,
                -0.0024330498315241725,
                -0.002254562548178284,
                0.00042216242149693134
            ],
            [
                0.003222334144534111,
                -0.001979637030915122,
                0.12436954128115449,
                -0.08210846828675897,
                0.07679821676465683,
                -0.015191328985209047,
                -0.04257089847206399,
                -0.671002154750318,
                -0.007732399119663899,
                0.024290822598649307,
                -0.006185627307600178,
                -0.016769683714913722,
                -0.002297625010783996,
                -0.0021568571373443966,
                -0.0021759967202833646,
                0.0033193405371177496
            ],
            [
                -4.977034461122003e-05,
                -0.0017734614015193712,
                0.04748735106139422,
                -0.05405853381638225,
                0.05347968860038317,
                -0.007249079772262375,
                -0.038732195103177505,
                -0.20929722753999835,
                -0.004009675980776954,
                0.0013519308611350703,
                -0.008260295809267416,
                -0.023571871692393307,
                -0.0015482393328313975,
                -0.0016815553039827267,
                -0.0015079398438770412,
                -0.0018250435703926514
            ],
            [
                0.05737613297227669,
                0.0518051415992218,
                0.012671379893168386,
                -0.014777518590955637,
                0.012154157147791838,
                0.03935422450287096,
                -0.027767582745384024,
                -0.09105679687915826,
                0.006350492252287713,
                0.008557934963544025,
                0.0012577455632003293,
                0.023817783886631503,
                -0.0461628549040387,
                0.037427860023664404,
                0.042909296049339345,
                0.03298937645501086
            ],
            [
                0.09587971063418137,
                0.08617107983420731,
                0.03687290491629144,
                -0.03292281562139042,
                -0.01132346447088192,
                0.05820601186933908,
                -0.00884068016388424,
                -0.16197457818198632,
                0.008453833923429374,
                0.01810778158012336,
                0.0030302393859788558,
                0.051866972603406836,
                -0.043900940787662796,
                0.0562574476046397,
                0.06545906283264165,
                0.06448530732052467
            ],
            [
                0.011407898269708306,
                0.01019521293961447,
                0.01788559494111839,
                -0.07944497023851485,
                -0.018462066548853313,
                -0.0026701222398034575,
                -0.007348887054644342,
                -0.21162232185701843,
                0.026122764020583427,
                0.025896321345251928,
                0.0033930477084218535,
                0.006091159010083105,
                0.01248593368059309,
                -0.010112446866569612,
                0.0006697353920880856,
                -0.013460793818442469
            ],
            [
                0.002181525387549726,
                -0.0008484040036327729,
                0.007848706815763908,
                -0.0329103866597041,
                0.07648168426403698,
                -0.005779728362970129,
                -0.00834659340870025,
                -0.06448657780598235,
                0.0052771555349467505,
                0.005319248600067002,
                0.0005525109908074299,
                -0.010597386595240845,
                0.005323974120510995,
                -0.002633840165720708,
                -0.0015843066097579162,
                0.0025029768599674567
            ],
            [
                -0.0009019149822967382,
                -0.0008171080700682331,
                0.007666816581156795,
                -0.010386560847010546,
                0.00140612603268092,
                -0.001652800808315744,
                -0.0023295625889049264,
                -0.03919782346603308,
                -0.005418391102859096,
                3.937142033413776e-05,
                0.0005298304512818401,
                -0.006821175395519922,
                -8.549484852563012e-05,
                -0.0007215747208102303,
                -0.0008148617492183256,
                0.002542977446518575
            ],
            [
                -0.003936512200272448,
                -0.0017402827961039043,
                0.05618160671319114,
                -0.01882204357362148,
                -0.007197648064945599,
                -0.0017862820511236979,
                -0.0007589258358684998,
                -0.2173889129502369,
                -0.004404059959960219,
                0.0060151305085823555,
                0.0024249193481012117,
                -0.00855811674380946,
                0.0017546112911548033,
                -0.0010345956276411558,
                -0.0012000745717954233,
                -0.008440312586812729
            ],
            [
                -0.003277980954018625,
                -0.0014421175797487225,
                0.03346203379802165,
                -0.016736885263720566,
                0.012052058299138076,
                -0.0027431690727002652,
                -0.0008079166546587663,
                -0.17322171160171,
                -0.004182263660358103,
                0.0038585007786775434,
                0.001193253251737391,
                -0.00968403222089074,
                0.0025370868633255647,
                -0.0013780341924735,
                -0.0009853867506361132,
                -0.006065374932028448
            ],
            [
                -0.002143855561442897,
                -0.0005601176273050693,
                0.005225860844855418,
                -0.014441488106727744,
                0.05401408861258542,
                -0.005216535815987549,
                -0.0004190510843018496,
                -0.010849631885146534,
                -0.003706400718731696,
                -9.9291772538703e-05,
                4.153666259761815e-05,
                -0.013599386521243427,
                0.0008880336852663836,
                -0.003189513583942413,
                -0.0005949295394417102,
                -0.0015229283148880132
            ],
            [
                -0.0013217586296005157,
                -0.0003070546220077679,
                0.009834046400376358,
                -0.04302356338951328,
                0.0036556261613295074,
                -0.022320575996176813,
                -0.00020600472863459626,
                -0.034959081812170466,
                -0.0005114961982402649,
                2.809618425658676e-05,
                -8.609301898153495e-05,
                -0.010246013065455266,
                -8.261560565568039e-05,
                -0.0021860249913456574,
                -0.00036152242351876934,
                -0.0013354610005228947
            ],
            [
                -0.00014651696402743537,
                -7.720966807968363e-05,
                0.002426858105769362,
                -0.039844151958414196,
                -0.0006184571062307905,
                -0.02366563781170597,
                -1.3845744158857225e-05,
                -0.04654124805913391,
                -6.334133105770739e-05,
                0.00016713025557673575,
                4.111149120499754e-05,
                -0.0022053979222464086,
                -1.4644191130876475e-05,
                -0.0001637846148186121,
                -2.4803454218512608e-05,
                -2.6463090295985574e-05
            ],
            [
                7.015620208904653e-05,
                6.964806121266774e-05,
                -1.998448902244079e-05,
                2.1341154561241367e-05,
                -7.392167631909335e-05,
                4.0980517370136984e-05,
                7.760015307538603e-05,
                -1.4163667296706112e-05,
                -5.871641705354229e-05,
                9.938721362271867e-05,
                7.800701914426342e-05,
                -2.9554780649701114e-05,
                5.600755211043378e-05,
                5.567755722556117e-06,
                4.054994275772796e-05,
                6.753469052353502e-05
            ],
            [
                8.118440170048337e-05,
                7.210349982435286e-05,
                -9.759441575373339e-05,
                -6.388451004134743e-05,
                -6.163756979353478e-05,
                -2.7838931173279543e-05,
                -1.8540507250624122e-05,
                6.744724322530733e-05,
                7.769914618633494e-05,
                5.290171593082434e-06,
                9.604876507770904e-05,
                -7.193369681018613e-05,
                2.234239489888819e-05,
                -6.00227651978741e-05,
                9.625204634200407e-05,
                3.012902169985804e-05
            ],
            [
                8.944577508294365e-05,
                -2.731535838995044e-05,
                7.993558410690869e-05,
                3.395919052056236e-05,
                1.3283878947856271e-05,
                1.1720992045246477e-05,
                3.819042565173353e-05,
                1.3940880852078119e-05,
                6.897368867553068e-05,
                6.692434371442718e-05,
                1.9173620298161564e-05,
                3.147731804319132e-05,
                4.5078526885492e-05,
                -1.824507391682649e-05,
                -3.988321000454126e-06,
                -2.00358040573118e-05
            ],
            [
                -4.310226966136664e-05,
                -1.617207486709052e-05,
                9.03320645357717e-05,
                6.506230892413627e-05,
                -7.746743381166535e-05,
                -1.2617905112577543e-05,
                -5.6131041858571786e-05,
                3.953999088536668e-06,
                -8.899779974452489e-05,
                -9.820311239128207e-05,
                -2.8444930250671308e-05,
                8.358730194617238e-05,
                5.627644807180522e-05,
                6.63926473020156e-05,
                9.395556868754194e-06,
                -8.723485264278904e-05
            ],
            [
                -3.8135802021503246e-05,
                1.2002731244263232e-05,
                -1.4493547972927788e-05,
                -2.14723336635943e-05,
                -8.638091302829534e-05,
                2.9446590429544193e-05,
                4.364800156225647e-05,
                3.511054805883071e-05,
                6.212490417094591e-05,
                6.265244823207824e-05,
                -4.2695433233236236e-05,
                -2.4534682792760814e-05,
                7.323327701464599e-05,
                -3.202316127570788e-05,
                2.3578327691709553e-07,
                4.0628034517097e-05
            ],
            [
                5.9816256196762086e-05,
                8.300034249450953e-05,
                4.5517827094469876e-05,
                -5.271255867716632e-05,
                1.1736398677058418e-05,
                -5.17645165617983e-05,
                -8.403592616143818e-05,
                2.2317751372072508e-05,
                -9.78887232022646e-05,
                -7.094789630283398e-05,
                1.766095600320377e-05,
                -4.163913831058519e-05,
                -6.156816682810761e-05,
                7.076748953926372e-05,
                2.097711329617847e-05,
                7.817250971507859e-05
            ],
            [
                -2.6606198722655884e-05,
                1.6200108988048405e-05,
                -1.85772288602027e-05,
                -2.7527803840846682e-05,
                1.1268356486528424e-05,
                -3.6879607912242935e-05,
                8.431034792650238e-06,
                -6.047715812361611e-05,
                5.0055609134018326e-05,
                -7.596850620600367e-05,
                3.1554604414410163e-06,
                3.376690453609771e-05,
                -7.605419633509409e-06,
                3.153325495816581e-05,
                -6.4914792228831e-05,
                2.1368284353632606e-05
            ],
            [
                -1.809822389899099e-05,
                -7.139855080901076e-05,
                0.00025976620977790043,
                -0.0008758383806694537,
                -0.00019056188736221496,
                1.3856283532557166e-05,
                -6.3285920503457195e-06,
                -0.0007800625252249008,
                0.0002922051297761505,
                0.002904172617179797,
                0.001198758441612415,
                -3.9787522625853446e-05,
                0.0020464409779016074,
                -9.186053021502719e-05,
                8.871806178892422e-05,
                -1.4531077627779102e-05
            ],
            [
                -1.1971293077947595e-05,
                -4.98270451301565e-05,
                -0.0001550194248025791,
                -0.0006280915269282844,
                6.710423302663504e-05,
                -0.000326787056170716,
                -3.3868174968998696e-05,
                -0.0002489966724484309,
                -6.96107351512502e-05,
                -0.000156521151405704,
                -0.00045979197440162913,
                -0.0002939615386290846,
                -0.00010747035066187199,
                5.941356729132324e-05,
                -0.00013012060375012675,
                4.177957763390242e-05
            ],
            [
                4.736941632249312e-05,
                -7.445778889092529e-05,
                0.0017043074443845632,
                -0.000858279897045467,
                0.00024314554206961817,
                -9.13884343831742e-05,
                0.0014685630405916667,
                -0.029714154865912137,
                1.3401014995329866e-05,
                0.0027765741107971986,
                0.0017445132355933231,
                -0.0001004403341779236,
                0.00010029289650312161,
                -3.922812786908416e-05,
                7.499567470033962e-05,
                6.915244038596487e-05
            ],
            [
                -7.54366511721855e-05,
                -8.270376858103593e-05,
                0.036597629364932036,
                -0.021319060784566954,
                0.017231028213869688,
                -0.0003041287940420787,
                -0.025915845106681757,
                -0.3083198018447639,
                -0.00034200057304703595,
                0.04817063764088172,
                0.03694522184769406,
                -0.003787106442174526,
                0.002842668535679247,
                -0.00026531903794968037,
                -0.00010848393443045627,
                -0.0002452901147508713
            ],
            [
                -0.00328645238635612,
                -0.0026808580398356655,
                0.13045220018468737,
                -0.17766118749609594,
                0.13443521138027548,
                -0.0057725567153122485,
                -0.0892028659948041,
                -0.6747726199508642,
                -0.0013407360886556012,
                0.07535317847871582,
                0.0240499812835996,
                -0.012589336123537189,
                -6.362023594863231e-06,
                -0.0034517705109284452,
                -0.0031603965931121364,
                -0.0034450883721902363
            ],
            [
                -0.018071025954371198,
                -0.03368422192250771,
                0.1891744972011596,
                -0.23932738230438425,
                0.2376042815116553,
                -0.026411059273384194,
                -0.15572381509999453,
                -0.6151515861907871,
                0.003975143173677752,
                0.11326430012771174,
                0.0752340825022487,
                -0.02907244127305431,
                0.004472686134127132,
                -0.019414773932480762,
                -0.016925749152171776,
                -0.02574716767397394
            ],
            [
                -0.02740537166755676,
                -0.06378342728919344,
                0.1327671498391229,
                -0.2934758082244311,
                0.12357361091428382,
                -0.04200848585686396,
                -0.1954519569576323,
                -0.42296740656008397,
                0.05876472736115698,
                0.2082558388295089,
                0.15994153925530802,
                -0.014819705640639613,
                0.025352009141260737,
                -0.02959862324758935,
                -0.021369617140047453,
                -0.048701442075934916
            ],
            [
                -0.04376463751183509,
                -0.05137688802164877,
                0.1162868820747869,
                -0.5234471536354369,
                0.24432381279588997,
                -0.055301938744495086,
                -0.14164643120086173,
                -0.5676310740894451,
                0.068092420459853,
                0.23815038094105145,
                0.18773513738556136,
                -0.017484706896862764,
                0.055580484138526676,
                -0.03819700658280345,
                -0.03511520713159565,
                -0.05615036491609367
            ],
            [
                -0.05083916318601188,
                -0.060624029405453146,
                0.3221972082941885,
                -0.5849870646714264,
                0.2602970326178425,
                -0.07036728167686207,
                -0.08107374966814379,
                -0.9103843261636254,
                -0.007609966374791933,
                0.2433404905839702,
                0.24628174102251174,
                -0.056434085169995485,
                0.1458758440079065,
                -0.03771928832962716,
                -0.06704126316705365,
                -0.05965660420066433
            ],
            [
                -0.012623717396168334,
                -0.007874416975106236,
                0.40299255721497473,
                -0.6532563850147581,
                0.38384011280910446,
                -0.027768957634504262,
                -0.30626231157230993,
                -1.0836119509354214,
                -0.038918428998316275,
                0.31304002484466303,
                0.30651707645455734,
                -0.05386423114046133,
                0.17693617692006142,
                -0.013424957516577187,
                -0.01699218876423047,
                -0.02965493383621188
            ],
            [
                -0.040840984940763644,
                0.011378312774584698,
                0.31802256075947893,
                -0.7284488097616229,
                0.3119573869610647,
                -0.025372045471882276,
                -0.376720708105751,
                -0.8738152561340599,
                -0.09880395896943461,
                0.2532201403428451,
                0.22030262192780464,
                -0.08199300043249538,
                0.23716704798183133,
                -0.03173622137257408,
                0.017816600937218915,
                -0.0024497134499832625
            ],
            [
                -0.04013386947359275,
                0.052931503054823886,
                0.2787670588122322,
                -0.7311493280490695,
                0.15169081917989902,
                -0.013449923290107472,
                -0.3289695215891475,
                -0.7911924184016318,
                -0.2187773657220649,
                0.19590576045530883,
                0.16440715984830162,
                -0.09912344091119614,
                0.131049542795144,
                -0.04924090599864734,
                0.0492204800208572,
                0.05769998311644543
            ],
            [
                0.018035881421141604,
                0.1076636800563316,
                0.37656082793594675,
                -0.4396491624014903,
                -0.08035882774295691,
                0.05589850432911823,
                -0.2420874671104492,
                -0.5246223902654298,
                -0.3245041705036487,
                0.2597031128644472,
                0.2565120216867393,
                -0.04107431209875478,
                0.17314725565016864,
                -0.04288047068693921,
                0.07327461542253763,
                0.13456793223340102
            ],
            [
                -0.027028716386304757,
                0.07403373615046921,
                0.44267188950395303,
                -0.48318540276925814,
                -0.2206420323755021,
                -0.0038764449987938082,
                -0.146697469023231,
                -0.5955110045521524,
                -0.17719414412753123,
                0.27616945320404573,
                0.2805108409797012,
                -0.07062378727594931,
                0.15362587492807708,
                -0.06632479399532488,
                0.027022286164016897,
                -0.0017072570937421018
            ],
            [
                -0.04121073570350242,
                -0.004377632824265604,
                0.36370005888269136,
                -0.4614569890916018,
                0.171550936713791,
                -0.05584358856781804,
                -0.15165860790956492,
                -0.46896559601717047,
                -0.22021072148185325,
                0.29665907759084376,
                0.30509132495969,
                -0.13076812193171894,
                0.16376502713481733,
                -0.040019072849343376,
                -0.03314037299232504,
                -0.01882141897695733
            ],
            [
                -0.06429709541668753,
                -0.031793189321170964,
                0.4882834581454051,
                -0.30307418123403307,
                -0.005461942844813289,
                -0.07234616999569726,
                -0.10178552075311761,
                -0.6967490173838075,
                -0.2774535170077493,
                0.33033577730331964,
                0.27281092083307124,
                -0.13117264755293123,
                0.08499653353387371,
                -0.06233379315968473,
                -0.057267178225479866,
                -0.015603256694925167
            ],
            [
                -0.09210825383160047,
                -0.029083920140422923,
                0.36855417593702566,
                -0.398696599094061,
                0.09875435908419838,
                -0.08579433184504455,
                -0.028576960097422922,
                -0.4773301173761635,
                -0.4090021069825939,
                0.31097790600151604,
                0.22696323816883895,
                -0.11626448890809599,
                0.21139910865654069,
                -0.10048925588083993,
                -0.05271620553378463,
                -0.06725029408786076
            ],
            [
                -0.08956973731347789,
                -0.015034292168092132,
                0.1630137950926805,
                -0.2617709798217819,
                0.22798800388395465,
                -0.05188087542915965,
                -0.001249548047684072,
                -0.12386999944842042,
                -0.1730052772741666,
                0.23040673830423458,
                0.18623112272820938,
                -0.09655358622427124,
                0.192321554686099,
                -0.10087412721360624,
                -0.03746475529393061,
                -0.05973558972712338
            ],
            [
                -0.03313935912037598,
                -0.004113247940566231,
                0.05427790752758479,
                -0.3381589056100455,
                0.3248652739533321,
                -0.028437014121260356,
                0.0037055395551986374,
                -0.12452877194390122,
                -0.09538699984849089,
                0.07944937670216946,
                0.07132352902443041,
                -0.05579145711520799,
                0.15919514076299607,
                -0.039969372340481764,
                -0.014208203866483535,
                -0.016404129655734533
            ],
            [
                -0.017229049590245727,
                -0.0027919376902860965,
                0.010349302798354613,
                -0.27636661376486893,
                0.18494068101754477,
                -0.03444645912661428,
                0.00043504042939395885,
                -0.10114886129612286,
                -0.1167718887341891,
                0.02664593299942096,
                0.011298196068410697,
                -0.03766162814363041,
                0.08320874979850873,
                -0.02203668972912495,
                -0.007089101800303938,
                -0.008246736749485992
            ],
            [
                -0.004875534229786926,
                -0.0004610540089479878,
                0.030372847196998523,
                -0.0838426038370788,
                0.143743566095014,
                -0.02522146941792831,
                0.0013996832442996674,
                -0.09382540048490992,
                -0.04485602715442117,
                0.008543498264116947,
                0.003860457987190535,
                -0.016606563019675627,
                0.010606302873693609,
                -0.007355739930223236,
                -0.002420503994664813,
                0.01351302458713339
            ],
            [
                -0.0005674991957524478,
                -0.00043737669946710447,
                0.038963553335788145,
                -0.007615387095396899,
                0.06836234696548546,
                -0.0006038620246438508,
                -0.0004231003070043947,
                -0.03334427421925791,
                0.10790530204356903,
                0.00057873805986712,
                0.002545896059220529,
                0.002093590124712429,
                -1.2946659996580873e-05,
                -0.0010772938440651457,
                -0.00036100741092875185,
                0.010710757175664795
            ],
            [
                -5.808595813380982e-06,
                -5.9741577327157275e-05,
                0.0002455005432091978,
                -0.003642944136248761,
                -0.003333014092949719,
                0.00012516789324531062,
                0.0001355019547096108,
                -0.0007666011552995181,
                0.07175901530946988,
                6.863366456421123e-05,
                -6.042891979176057e-05,
                0.004000898060076947,
                3.41393756244639e-05,
                -7.236223502872674e-05,
                3.7857543630214806e-05,
                -0.0005571956514616239
            ],
            [
                -2.8796004393976895e-06,
                -6.85335414125018e-05,
                2.5814561776136617e-05,
                9.648182793812859e-05,
                5.44625372379533e-05,
                8.403164408282067e-06,
                -1.9616449596166242e-05,
                7.260484372152128e-05,
                -1.555117284286429e-05,
                3.780328711636625e-05,
                -6.658258111781607e-05,
                3.2377398210092835e-05,
                6.934158627770614e-05,
                -6.64326439482297e-05,
                4.529268645741661e-05,
                -6.976401952288246e-05
            ],
            [
                -1.7371997893553834e-05,
                -7.651725985205255e-05,
                5.9082944061914554e-05,
                -6.312826693966297e-05,
                9.186816817163782e-06,
                -2.0812575375322992e-05,
                -3.307971616880407e-05,
                6.205578949272369e-05,
                8.79015008633355e-05,
                -6.178277170223784e-05,
                1.1453861223494673e-05,
                -2.1802318723575844e-05,
                2.685309454138959e-05,
                1.284804489893423e-05,
                6.0065263512440386e-05,
                6.527901965006215e-05
            ],
            [
                8.922078321531303e-05,
                -8.068513301396917e-05,
                -7.348850175494796e-05,
                -9.404842855202909e-05,
                -2.0878434667873498e-05,
                -4.712199007708291e-05,
                7.257426228469278e-05,
                -3.765436107214461e-05,
                9.592226605971523e-05,
                -8.165563453539484e-05,
                -8.40227895575737e-06,
                -1.7099422310115392e-05,
                -9.824980175616698e-05,
                -8.88970055687458e-05,
                -8.25420794392942e-05,
                -3.714758064721949e-05
            ],
            [
                -2.475334808740784e-05,
                7.266829639966724e-05,
                -1.195340645431004e-05,
                -7.785278977039521e-05,
                4.983326916248579e-05,
                3.497728087137367e-05,
                -6.857254586011123e-05,
                9.30984919153873e-05,
                7.846022491092191e-05,
                -5.2221811365517755e-05,
                -5.42156662051607e-05,
                5.35367554037406e-05,
                8.190139435289063e-05,
                -9.236388641818016e-05,
                -2.160663176278142e-05,
                -1.9179638525109428e-05
            ],
            [
                0.010362340752042155,
                0.009672833796773452,
                -4.5805546955271845e-05,
                0.007417027756908977,
                -0.001851888218788722,
                0.0031869859512086898,
                0.002495448754003938,
                -2.5882262041726084e-05,
                0.0193151271825471,
                0.00013508733867738729,
                5.398281397342941e-05,
                0.007749743588975286,
                -2.7658120740352468e-05,
                0.0044011108534484766,
                0.003246340063368927,
                0.003132036819920884
            ],
            [
                0.0023933705234123292,
                0.002235536698932056,
                0.0044535322876514,
                -0.003327562521800072,
                -0.0008378325938126916,
                0.0008460302271599405,
                0.001377226808763967,
                -0.002928440617067845,
                0.005547411807539642,
                0.0257980004494844,
                0.01575134666253099,
                0.001980350946671153,
                0.018195147699886397,
                0.0010744950713465766,
                0.0007638439179594383,
                0.0006412155663976487
            ],
            [
                1.0310985852964549e-05,
                -9.065839850686336e-05,
                0.016017093592132728,
                0.0028403215281201056,
                0.0012653926704728066,
                -2.8694053853270303e-05,
                0.0037787747346055573,
                0.0037372010170133637,
                -0.0015966720377911681,
                0.026121145728411257,
                0.02426064009279512,
                0.0004566528538559402,
                0.018492451052366094,
                9.04496311506379e-05,
                1.0120583525271058e-05,
                -0.00010472257876061412
            ],
            [
                -0.0015632370227078164,
                -0.0011737259281812834,
                0.06865320344096823,
                -0.015663573401824237,
                -0.0017326288774067897,
                0.0005289761861892144,
                0.05041763178718068,
                -0.13455972095094995,
                0.0026338504432763077,
                0.030685497466954103,
                0.033620524823763195,
                -0.002451437807511698,
                0.01225911283983873,
                -0.00164340150689435,
                -0.002483325192051415,
                -0.002288968810192497
            ],
            [
                -0.002167282320094272,
                -0.0021804414865097535,
                0.05150936929935507,
                -0.0406891851631215,
                0.01911338102543391,
                0.00030832187963660744,
                -0.04020082138206455,
                -0.45652655181833696,
                0.00378423972495608,
                0.11886126327022992,
                0.1043656188301244,
                -0.004278174813722241,
                0.09051130933027539,
                -0.0020665906072441045,
                -0.000729739342515881,
                -0.002185673649577448
            ],
            [
                -0.011031777680336417,
                -0.009265788385515204,
                0.1358179692516703,
                -0.33069383120378804,
                0.07550401354339652,
                -0.026713982938540767,
                -0.16174967267974286,
                -0.8769583923248846,
                0.028139291027455462,
                0.2047106052955394,
                0.1842951929431263,
                -0.00635771661762395,
                0.057348166451399354,
                -0.011777945115206708,
                -0.008502550496163263,
                -0.010778347286059552
            ],
            [
                -0.03559461096358744,
                -0.04639868104163014,
                0.10145628940719434,
                -0.5759542665610623,
                0.1651550514711127,
                -0.0688697712522204,
                -0.4649220223304793,
                -1.0101611933111967,
                0.08889472072461992,
                0.10409042729478644,
                0.17367133209052182,
                0.005035741231783622,
                0.05767479224848426,
                -0.038325444784552014,
                -0.026938961487512163,
                -0.05352379498435289
            ],
            [
                -0.07835104649566794,
                -0.0900649825404114,
                0.15835795575726735,
                -0.7179232523801653,
                0.10746990521592872,
                -0.09036506990163733,
                -0.39084262852512036,
                -0.936883024124774,
                0.11634591899549342,
                0.3688555210825238,
                0.20746951361310134,
                0.034294369166588304,
                0.34650844241941964,
                -0.07875214636745469,
                -0.021021264518723652,
                -0.1593844242828678
            ],
            [
                -0.13838623221325286,
                -0.17981653067529416,
                0.14137210462826327,
                -0.9242410655932978,
                -0.07900787332999636,
                -0.1803455761021484,
                -0.045481664759380036,
                -0.9498539806184804,
                0.0416926051651014,
                0.4577198989176535,
                0.3567380223628471,
                -0.010835061966068496,
                0.39275216282602093,
                -0.13339521029423518,
                -0.10114722237933778,
                -0.2501702758294445
            ],
            [
                -0.2213830119656621,
                -0.3162107343475446,
                0.2032500796083108,
                -0.9602047580510116,
                0.010586744498446059,
                -0.2918922558963785,
                0.3635156608195523,
                -1.2463730901629895,
                0.028864554798952082,
                0.3973556233725552,
                0.5304783719608844,
                -0.1470369809711299,
                0.19905899233055313,
                -0.20061061779575948,
                -0.25212317318559024,
                -0.3358482091351623
            ],
            [
                -0.2324289384134701,
                -0.19772041369822052,
                0.5663796348650826,
                -0.9447984144523619,
                -0.22103253074634166,
                -0.32391186685379075,
                0.3446092566877517,
                -1.5321284062801157,
                -0.026821533581032984,
                0.2804654054554659,
                0.5832267639332519,
                -0.16855607673785797,
                -0.1828375912756177,
                -0.21624552880097467,
                -0.19667134817988635,
                -0.32014895034263036
            ],
            [
                -0.24007808819790127,
                -0.07182552092976911,
                0.5571042717602478,
                -1.0064788966861284,
                -0.6000919193499544,
                -0.3437940146506511,
                0.0501615357025393,
                -2.2222821603053293,
                -0.5251262280472624,
                0.0795179715541847,
                0.42589009681100976,
                -0.17309669889013007,
                -0.40548256789490633,
                -0.21918188609037942,
                -0.0894157301530285,
                -0.2601822805718828
            ],
            [
                -0.25886312185620447,
                0.0003476503888216715,
                0.6106701707733845,
                -0.5216629095725167,
                -0.056359285682928584,
                -0.33887297353927587,
                -0.06412333903120991,
                -1.8099019788630373,
                -0.6919181675078099,
                0.11325248208820282,
                0.3498985938666422,
                -0.2445084017634552,
                -0.5122017833144793,
                -0.2619710268015411,
                -0.06348093336838848,
                -0.17429582379331038
            ],
            [
                -0.16395786794108214,
                0.13577846123621531,
                0.6393908030024238,
                -0.397044173739565,
                0.24508027301739407,
                -0.2337981960911617,
                -0.2465732755770076,
                -1.7065517887505848,
                -0.7829988001368233,
                0.25032234311698853,
                0.27748944613107274,
                -0.3525709053777993,
                -0.12726285756805358,
                -0.24146073367354623,
                0.017312089511521092,
                -0.015809151787568917
            ],
            [
                -0.25532998903867593,
                0.06147968749286282,
                0.3493134184575685,
                -1.1672251969011005,
                -0.6381925029505155,
                -0.3564526728859846,
                -0.38618170263800333,
                -1.2287137168772662,
                -0.8875535976493364,
                0.31344809348023717,
                0.05729528442248995,
                -0.48911753342666187,
                0.004247665153569559,
                -0.37487917421440287,
                -0.09609761975116968,
                -0.2529547928428228
            ],
            [
                -0.2124315109678852,
                0.037600780755920854,
                0.5773627201875111,
                -0.566637677123091,
                -0.17155162231201923,
                -0.3581309214911945,
                -0.636507684347113,
                -0.6804875707934834,
                -0.860851263240568,
                -0.08303665180798779,
                0.03956450297032134,
                -0.49080762002475903,
                -0.2942628095453027,
                -0.2778807231296806,
                -0.272057840675803,
                -0.19277206805360267
            ],
            [
                -0.34518907794421216,
                -0.05638343066555751,
                0.6654174058158273,
                -0.2954958714303357,
                -0.10388907725912644,
                -0.3140961419784402,
                -0.5484484558751972,
                -0.4793651651987172,
                -1.0576171730722081,
                0.3554098369652043,
                0.35312701324955736,
                -0.5839211925499921,
                0.32416101197364994,
                -0.3589873390388189,
                -0.2475547280555918,
                -0.2162112881062331
            ],
            [
                -0.4086157796220995,
                -0.13928133253656869,
                0.34382129614393964,
                -0.8837531353210396,
                0.10970544464873824,
                -0.2911641538764834,
                -0.4392603750731419,
                -0.4179605218120772,
                -0.7642625073185544,
                0.5259508292559768,
                0.3913808440589376,
                -0.5010410195562057,
                0.5457401621959216,
                -0.3625743450241219,
                -0.18023850039384334,
                -0.1881306823341997
            ],
            [
                -0.23565161972198706,
                -0.08505954204351598,
                0.2939194285323201,
                -0.38380033856100354,
                0.05743353785368815,
                -0.22994000948607235,
                -0.21775685929462843,
                -0.15934598606631525,
                -0.27982676231241294,
                0.44598086423070626,
                0.45067627264822474,
                -0.30958045570962517,
                0.3273989319512119,
                -0.2400923950112687,
                -0.12746906847698827,
                -0.02302183066380405
            ],
            [
                -0.14283987386882133,
                -0.0506695304277376,
                0.14928985802035763,
                -0.4462875848307336,
                0.3570144018498781,
                -0.15964149811233633,
                -0.12210309306389706,
                -0.19564849802009027,
                -0.22281263918091024,
                0.3243683839037594,
                0.4007168510323477,
                -0.18230149481307753,
                0.26212482031365253,
                -0.13992849792696682,
                -0.05354443512042024,
                -0.016120168980345018
            ],
            [
                -0.05082021815805278,
                -0.011519131164436142,
                0.09797957477902877,
                -0.49859099161580533,
                0.491457122787154,
                -0.030842556489595264,
                -0.051473942368985205,
                -0.03266410229955719,
                -0.1551248795015968,
                0.26951396686250756,
                0.27677129251098104,
                -0.08015668291647143,
                0.2831525585518469,
                -0.02907714119900835,
                0.018745555765293232,
                0.027644681143842543
            ],
            [
                -0.06181962277959309,
                -0.009619888869618603,
                0.0772756491769164,
                -0.32018204292081087,
                0.5038258420991334,
                -0.03722250717673623,
                -0.0411090388888672,
                -0.06337040277500844,
                -0.0695136205916284,
                0.17812473394142614,
                0.10248620286374718,
                -0.07406646284809983,
                0.34663141948454546,
                -0.04684395613620051,
                -0.0077455208277522666,
                -0.002362374160469773
            ],
            [
                -0.05272208162272838,
                -0.00489215293446808,
                0.05489195678048119,
                -0.27080711933321283,
                0.22747891874410472,
                -0.03269545147470733,
                -0.012567510210485754,
                -0.03301149154596031,
                0.023277130319730114,
                0.108352534292084,
                0.027409116930516265,
                -0.027714218045597056,
                0.2772048685131204,
                -0.028457609730171526,
                -0.00036758145916543085,
                -0.053643923779036984
            ],
            [
                -0.006737360601026343,
                -0.0007399085245748666,
                -0.010833381339446306,
                -0.09904163875611519,
                -0.0015475532026560453,
                -0.02967212940769414,
                -0.00015353520501148937,
                -0.0006821700237788456,
                0.06636216054387117,
                0.010031596407594427,
                4.027198064639692e-05,
                0.012857130164798895,
                0.02657944203732224,
                -0.005638333075344511,
                0.0002619974699823204,
                0.00029083263685075896
            ],
            [
                -0.00983280848014698,
                -0.0006518472445353824,
                0.0008449736001943062,
                -0.003420685461212143,
                4.4978711548596616e-05,
                -0.003063042779042622,
                9.991718019409581e-05,
                2.504737628857531e-05,
                0.0014951523479422844,
                -0.0008777276089875429,
                -0.0005091512546421719,
                0.0006564036682169672,
                -0.006510119370620645,
                -0.007183103906830485,
                -0.0006491625230461422,
                -0.007830833404417432
            ],
            [
                1.5982533151970892e-05,
                -3.546519490315305e-05,
                7.0819440790148835e-06,
                6.494627470903892e-05,
                -1.1825815008858134e-05,
                -4.0379610050690764e-05,
                -3.5447892866632654e-05,
                -9.345889122309948e-05,
                5.272526624003239e-05,
                8.023120396338615e-05,
                -7.819581595077318e-05,
                -9.646079137472731e-05,
                9.260781597438278e-05,
                -2.9294164156359832e-05,
                8.757236100085794e-05,
                5.906246108570798e-05
            ],
            [
                -3.946481638533981e-05,
                3.6934988808810584e-05,
                6.854260769807302e-05,
                5.744670521725977e-05,
                -9.920144788897419e-05,
                6.0595544806165186e-05,
                3.063976474962738e-05,
                9.441530876586011e-06,
                -1.2956878134881084e-05,
                -8.848430342507607e-05,
                5.620462551756169e-05,
                5.459312989901468e-05,
                -5.406643682510161e-06,
                -7.744091076923866e-05,
                5.98595014526873e-05,
                -6.615255210742114e-05
            ],
            [
                -1.0707841175122644e-05,
                -4.2149649806275675e-05,
                -8.091191952709276e-06,
                1.881665202782248e-05,
                -9.918499987532057e-05,
                -8.301511821096413e-07,
                -5.6405085568949414e-05,
                -8.209420438575937e-05,
                0.0001517579801907302,
                1.920388355946852e-05,
                -8.258374516194723e-05,
                -9.318455322347889e-05,
                -7.21056737716583e-05,
                5.292950524767655e-05,
                -3.926642941368619e-06,
                -2.974068819870603e-05
            ],
            [
                0.03554951966395248,
                0.03310655553154512,
                0.0003046030688735713,
                0.026238030373664015,
                -0.006902215900743485,
                0.011646591375120948,
                0.008607239529803473,
                0.0002894245868015883,
                0.06758807546710835,
                0.00021113478405143787,
                0.00016370394882898529,
                0.026912411744882802,
                -3.825385940358004e-05,
                0.015331885212443833,
                0.011196761334241447,
                0.010765733263808036
            ],
            [
                0.008372023018854445,
                0.007834579800639962,
                0.0014135652024276231,
                0.023016869874396145,
                -0.001806417516676963,
                0.0010780567098725518,
                0.011033736225524294,
                -0.00045121638529603845,
                0.023162849782357692,
                0.00034196216471049504,
                0.00017256510068194763,
                0.00574145347258686,
                -0.014150402296113135,
                0.003368637830631971,
                0.0015684243531601633,
                0.002435115614386002
            ],
            [
                -0.001446469015345107,
                -0.0014057572910596578,
                0.030379119753521956,
                0.07110948389504801,
                -0.007012675895678851,
                -0.019668184543780956,
                0.033202719436724704,
                0.03218750094986521,
                -0.002459390209547349,
                0.005754890079528862,
                0.022013175533476873,
                -0.00022537251191042456,
                -0.04489775104506581,
                -0.0010369890662629637,
                -0.006655392393806997,
                -0.001975381998002698
            ],
            [
                -0.019385331398603566,
                -0.01456790399805775,
                0.10223863120616633,
                0.08045643041322004,
                -0.06825035827878732,
                -0.07370074534473717,
                0.08654800396963781,
                0.009438096415790208,
                -0.004379825280878725,
                0.08464653464920968,
                0.09571439729998125,
                -0.024907612402739577,
                0.05088143170467288,
                -0.022357010803967084,
                -0.02749043192309811,
                -0.025841390872629003
            ],
            [
                -0.02731097557731669,
                -0.022899150911211003,
                0.04513949695822675,
                0.0951273165208086,
                -0.3539584450598389,
                -0.06500027866674617,
                0.07485323142926575,
                -0.3335949138530197,
                0.08168633418033863,
                0.18458919587373412,
                0.20192516436944458,
                -0.022518454653508605,
                0.06676261517646626,
                -0.03325685617392187,
                -0.04040212507676114,
                -0.022491198982690596
            ],
            [
                -0.058758455799279366,
                -0.037857453410183414,
                0.12957197023357578,
                0.03693164796052419,
                -0.3435059671913857,
                -0.11337247005587234,
                0.24553910590450398,
                -0.9207857924746516,
                0.17410191376788123,
                0.23817129927978173,
                0.24340601899831332,
                -0.01531300238298686,
                -0.22712557287069965,
                -0.0673481878768511,
                -0.0617070132226909,
                -0.048447020172327375
            ],
            [
                -0.11119918917226866,
                -0.0727135495496195,
                0.32071071402638346,
                -0.0026729012333575842,
                -0.19947780234292592,
                -0.1521215804288282,
                0.5842026907650872,
                -1.0072406272072398,
                0.4153837187621508,
                0.026169180422238886,
                0.009110168159864786,
                -6.302092824352138e-05,
                -0.380831030099083,
                -0.11829135445615196,
                -0.0431242612748565,
                -0.15149249136788476
            ],
            [
                -0.2547794781867291,
                -0.1455646094549209,
                0.27263163680754066,
                -0.1606485992125734,
                -0.23114463911298405,
                -0.2099238073045649,
                0.04516108151927383,
                -0.9196093230943714,
                0.5064984661232677,
                -0.005732854600134275,
                -0.03485581093613821,
                -0.05660019333763164,
                -0.24116571859276748,
                -0.23293366844030927,
                -0.02233038146183043,
                -0.36951924275067594
            ],
            [
                -0.2896348394890169,
                -0.09153506017454809,
                -0.03350788157551539,
                0.08493713389847012,
                -0.5027771195546351,
                -0.3366208469311217,
                0.239817365418021,
                -0.84223077378954,
                0.7105784984395984,
                0.22252554831599045,
                0.16636562460508855,
                -0.009279699477804165,
                0.10284304689111162,
                -0.21866535614393134,
                0.03483910683711151,
                -0.4728098538392571
            ],
            [
                -0.39804106475136386,
                -0.18131327065769684,
                -0.026367786900437392,
                0.5382563428101566,
                -0.06847133624070167,
                -0.5362438323751871,
                0.10497958018752106,
                -0.48513326559602743,
                0.7085021368356796,
                -0.019763882279728542,
                0.17666929158476669,
                -0.05584071027681488,
                -0.5462551037644667,
                -0.28665390082723124,
                -0.06287028888778826,
                -0.5632406771927156
            ],
            [
                -0.4448117266529283,
                -0.16649987559832863,
                0.3593855167520732,
                0.28261242756487387,
                0.12739630119206405,
                -0.39399162614485045,
                0.35326168990417495,
                -1.009217984968697,
                0.4968477892520517,
                0.02188319254179737,
                0.49657839555016614,
                -0.08669173484374933,
                -0.34537318081083623,
                -0.31719978922767345,
                -0.07262939162641402,
                -0.5235001977908761
            ],
            [
                -0.35793056840051346,
                -0.02675435933234017,
                -0.12375038460503629,
                -0.09493242369621219,
                -0.5077181261651174,
                -0.43794299226599953,
                0.3381533675488995,
                -1.1004357811560037,
                0.08456644467069686,
                0.036744571031286165,
                0.16726448052122747,
                0.033449124674755346,
                -0.2757420930251785,
                -0.28650321619678815,
                -0.07465658082320228,
                -0.3189305865894961
            ],
            [
                -0.13989459284933345,
                0.11853360899659418,
                0.2338309483414914,
                0.14557763424074746,
                -0.261968957690711,
                -0.15242522977219597,
                0.030928443501615173,
                -1.2833164423513954,
                -0.00031419265168938586,
                0.31788534375701655,
                0.19894683050730008,
                -0.06787669174635777,
                0.31611486164231695,
                -0.21924429230926426,
                -0.025715917275786208,
                -0.3670104201859479
            ],
            [
                0.03197192666964695,
                0.27053944030931937,
                0.28367277741381536,
                0.1772993519836136,
                -0.294766996304929,
                -0.1720807797207321,
                -0.578623522796244,
                -1.342608476930504,
                -0.2085479526484924,
                0.30704819575564213,
                -0.1305318711587518,
                -0.11947984757615014,
                -0.10945917868874142,
                -0.08498485827267704,
                0.05505387938752116,
                -0.290811951498935
            ],
            [
                0.11347353859089924,
                0.13651750896545348,
                -0.14589754973198807,
                0.6300599609581194,
                -0.5972707866926634,
                -0.18164820363621864,
                -0.398976483786201,
                -0.6477649222931319,
                -0.8962179673669665,
                0.3122850548242091,
                -0.10703388148491184,
                -0.4101496527783384,
                -0.02886789510293619,
                -0.05338276902700886,
                -0.000479681208770787,
                -0.15791305415045567
            ],
            [
                -0.0679954832459817,
                -0.0903892535777525,
                -0.286723888893022,
                -0.21204160579574025,
                -0.26108573326013584,
                -0.3508409428484564,
                -0.9953047662688442,
                -0.6724114923799351,
                -0.9799720279005543,
                -0.35140995678922343,
                -0.1543786518863967,
                -0.6928544483814671,
                -0.05434591477745947,
                -0.18210223850909799,
                -0.20572754771885957,
                -0.05453316259397997
            ],
            [
                -0.24773529187386512,
                -0.04653597446597077,
                0.4243157832091153,
                0.5249586674142719,
                -0.49858352862109523,
                -0.23789106875587063,
                -0.864856225569592,
                -0.518708485061759,
                -0.8171214611557288,
                -0.21366782926317213,
                -0.08267941461019554,
                -0.48638200278838123,
                -0.14763092134946332,
                -0.2731741634288175,
                -0.18201309184366557,
                -0.04007603205139153
            ],
            [
                -0.14404954212302049,
                -0.044803931317671374,
                -0.10617123152853783,
                0.32250146995913964,
                0.12256823165507233,
                -0.006408583274169547,
                -0.7464557823339859,
                -0.06527234520788264,
                -1.230108566976522,
                0.009521822233538962,
                -0.11826938949192911,
                -0.07778388887623972,
                -0.15234620038520597,
                0.020841945692103885,
                0.0055774944854502725,
                -0.04858805290590411
            ],
            [
                -0.08819846439426901,
                -0.07934636424755172,
                -0.4020442751762506,
                0.03437233233431087,
                -0.37380111428441365,
                0.019700350946949982,
                -0.790996842868904,
                0.1699203231874379,
                -1.159556432859105,
                0.10786787539452376,
                -0.1117316567783116,
                -0.17651985787692218,
                0.06753415054111472,
                0.03163348353751756,
                -0.009348721657230096,
                -0.18352105619798167
            ],
            [
                -0.10613895931623152,
                -0.02156470032625887,
                -0.1814635926469396,
                0.18721858104281422,
                0.23635472536085467,
                -0.10718802513498078,
                -0.7351211320840653,
                0.30818116112164623,
                -0.9970445767180124,
                0.054551539896439905,
                0.25493336677686784,
                -0.3177392835991535,
                -0.17134612986593456,
                -0.01012188484212712,
                0.05217509166359714,
                -0.09486777934442531
            ],
            [
                -0.08015425324982692,
                0.013240616089357695,
                0.07722587917544858,
                -0.3105382726498004,
                0.12359637106513417,
                -0.039149300257026703,
                -0.35399697200504926,
                0.39874037711560767,
                -0.6942478471974312,
                -0.04950543247047106,
                0.20835174243890797,
                -0.10046484381003815,
                -0.26228157715895933,
                0.045434056225750856,
                0.09103260929122822,
                0.013356317092130228
            ],
            [
                -0.049195337183474935,
                0.021928455501650387,
                -0.18232607967425138,
                -0.24709840518974946,
                0.6648346602271379,
                -0.07062634274870448,
                -0.12886262965318465,
                0.14393138846162676,
                -0.1659301277838893,
                0.15450840340813388,
                0.05131384442244707,
                -0.017152913897200243,
                -0.2958777220825128,
                0.022649899342156492,
                -0.007380142443990699,
                0.09411309192785408
            ],
            [
                -0.06778457402963291,
                -0.0013484421523546253,
                0.03805246178295065,
                0.24592901204191783,
                0.2901270738343872,
                -0.1387508572631897,
                -0.031970024724834054,
                -0.002566970889276201,
                0.24745104077907923,
                0.1366569429492563,
                0.05096887826119599,
                -0.002911442704883272,
                -0.2527045124848013,
                -0.054280546577918476,
                -0.04671897423215617,
                0.06832561236697522
            ],
            [
                -0.06326619676434395,
                -0.004325043891693549,
                0.012688735251098123,
                0.11949057695181219,
                0.01629911182217174,
                -0.05476521300050593,
                -0.008777437324623296,
                -0.15136099964684419,
                0.1624227266944376,
                -0.0025530584459316657,
                0.0032351389843676957,
                0.003566785265590907,
                -0.16113797417474948,
                -0.05135727576109149,
                -0.020654460765866668,
                -0.01600909544017834
            ],
            [
                -0.019608098938105174,
                -0.0006446440602459565,
                0.009004982779533648,
                0.08935731086341712,
                -0.006297942851425636,
                -0.00018195317146982483,
                0.00016511134722742063,
                -0.09561862091870754,
                0.05594811723958292,
                -0.016890334944779234,
                -0.007520014423223526,
                -0.0027299300610413835,
                -0.08627934291959241,
                -0.015531135063909178,
                -0.0015131028352711909,
                -0.022686743235236274
            ],
            [
                -0.004551666674249258,
                -0.00024789843234477384,
                -8.974678085636121e-05,
                -0.006552719380523193,
                -0.003342274043154597,
                0.004731340520103101,
                -2.857226915121641e-06,
                -0.019684924193011422,
                0.006737989595963131,
                0.006848557699758858,
                -3.778627908544807e-05,
                -0.001634157264619719,
                0.00010561787989796338,
                -0.0016552080465734925,
                -0.00017772769857424188,
                -0.020734967807800975
            ],
            [
                3.630428439898919e-06,
                -2.400117731417032e-05,
                -4.939950942414446e-05,
                -4.05722581585547e-05,
                -8.219367833957967e-05,
                -2.2107978671477555e-05,
                6.0226784233890436e-05,
                8.842211325110057e-05,
                -9.055722438234096e-05,
                -3.0990903880834654e-05,
                -7.060882158496713e-06,
                3.0877196394424563e-05,
                -4.589898975654516e-05,
                6.578943024186007e-05,
                -9.07628012001884e-05,
                3.1541130911209026e-05
            ],
            [
                -3.37979964158858e-05,
                1.2853492217323372e-05,
                -7.551024428230653e-05,
                -8.327681337318443e-05,
                5.0158417616664343e-05,
                4.947196184039699e-05,
                5.40363271030482e-05,
                6.024250752921573e-05,
                4.6534717532131014e-05,
                -5.559719318193686e-05,
                -5.641636492861782e-05,
                4.768913653683552e-05,
                -6.385030998849393e-05,
                5.7777337738080855e-05,
                5.8864266912907044e-05,
                3.384822346246822e-05
            ],
            [
                0.005190909750469664,
                0.004750109113299638,
                0.0018954190958039687,
                0.0030618028272556335,
                -0.00204226629630594,
                0.0017163049031208774,
                0.0004993498770611987,
                -0.0013479474977351657,
                0.00985060071520453,
                0.002936115915149503,
                0.00034932935296224136,
                0.003986335245081618,
                0.0019942924827922176,
                0.0024314870661862734,
                0.0021825731080608764,
                0.0014968854327059664
            ],
            [
                0.002649566298822304,
                0.0021937168518984143,
                -0.00571127467877284,
                0.022366055972794122,
                0.007927129119759607,
                -0.003726921032262743,
                0.07816231812657257,
                -0.004095419987882931,
                0.03587840001403073,
                -0.002389847169056547,
                0.0012123822671130419,
                0.0025179902692390238,
                -0.053053202718420026,
                0.002125954407922765,
                -0.001914194157554858,
                0.0014501897384970226
            ],
            [
                -0.0011990786787304131,
                0.0027890557966613384,
                0.006838296896331003,
                0.0427338113912854,
                -0.05745731320346335,
                -0.0364309437654503,
                0.3485486068537985,
                0.06786332250778632,
                -0.014751150480033611,
                -0.0078047231698235575,
                0.06637099588399017,
                0.0053585109607499955,
                -0.12821708444973162,
                0.0006101613218896074,
                -0.012297618111078032,
                -0.007466170278069213
            ],
            [
                -0.03547438400286073,
                -0.021572076398713603,
                0.20313306858291405,
                0.09598926598371464,
                -0.29873370758397544,
                -0.08987136018626482,
                0.5608769598858528,
                0.19122291274211858,
                0.07101823242537735,
                0.08652377225747356,
                0.1814206667254005,
                -0.048554802058316325,
                -0.20794230855079882,
                -0.040370605289929966,
                -0.044751884958773434,
                -0.05189364069529828
            ],
            [
                -0.07114919273824481,
                -0.04449788529458838,
                0.013035749984842422,
                0.24440328367391204,
                -0.10139655589056251,
                -0.1141312450053413,
                0.5781246041207159,
                0.10004480239652253,
                0.06046449843430386,
                0.1303128978701536,
                0.09773462989674085,
                -0.06125577649468793,
                0.01771911490355618,
                -0.08797869163423647,
                -0.048000231861331635,
                -0.06301153905432882
            ],
            [
                -0.12147778798356366,
                -0.10559416202817798,
                0.21669129814383628,
                0.4493465673250624,
                0.04063301885429091,
                -0.16740041012231435,
                0.7600718461339068,
                -0.4017265461932485,
                0.3216117657482592,
                0.15028086268459065,
                0.00502380523247069,
                -0.06775488460186187,
                -0.40473507685004384,
                -0.13929310280764187,
                -0.05279960628744131,
                -0.11384257205801508
            ],
            [
                -0.2723935440442013,
                -0.24490556179288742,
                0.3680642200368383,
                -0.4149198369536349,
                -0.10227791921998493,
                -0.1986511726268063,
                0.2535817032583786,
                -0.2489363992341436,
                0.5120692925086755,
                0.12891034386307193,
                -0.14840274942210296,
                -0.246973394927154,
                -0.3136813715787269,
                -0.2921255757047649,
                -0.11725631549913856,
                -0.36970921518117245
            ],
            [
                -0.38795454042635286,
                -0.2811317279492723,
                0.23506543412945013,
                0.08371128160087345,
                0.09530583602475294,
                -0.29420588880182424,
                0.21609429311333567,
                -0.2201856348080208,
                0.4593898375290976,
                0.31087241033352897,
                0.14317024459297725,
                -0.25742352951366854,
                -0.08776638262154939,
                -0.36925155160659173,
                -0.0365521828824986,
                -0.5370213812111384
            ],
            [
                -0.457340699769006,
                -0.27572980314404233,
                -0.18366963401891023,
                -0.47800048346741714,
                -0.29720344427990525,
                -0.41912314186920685,
                -0.17070879601522512,
                -0.07978113801786715,
                0.6957766811345746,
                0.2934049582726613,
                -0.056463120194279966,
                -0.27811817731166893,
                -0.36302619673515973,
                -0.37131021011043325,
                0.010629050131301205,
                -0.5871607538579008
            ],
            [
                -0.5380737093980793,
                -0.2524451749948463,
                -0.24645315210869043,
                -0.09962195145936004,
                0.048070206356720525,
                -0.33515136616671193,
                0.1501077800502605,
                -0.13061064594507066,
                0.6765282475832405,
                0.5131114086753744,
                0.4354485791144532,
                -0.2638943522416243,
                0.01022138203362956,
                -0.3684772248933026,
                -0.020486201145470298,
                -0.6893321528977682
            ],
            [
                -0.6183068678682794,
                -0.05447964755704432,
                0.04466709487436775,
                0.10152454711399334,
                0.19347444222905685,
                -0.13506648314198055,
                -0.178766158047424,
                -0.4461591366851708,
                0.15637240419140194,
                0.37265568212304595,
                0.3423395922773165,
                -0.21069567990351373,
                0.19213113148843874,
                -0.47820883137969483,
                0.022339401024083265,
                -0.6609424797969362
            ],
            [
                -0.5100632576927202,
                0.1427816342595222,
                -0.3115932062136592,
                -0.7044804931011547,
                -0.13662993139833787,
                -0.15037802347951862,
                0.23215634380779113,
                -0.4222951368238328,
                1.2631878196620254,
                0.048912160092167895,
                -0.10779138187598167,
                -0.31170703445324743,
                -0.19483014200451815,
                -0.5154746007216148,
                -0.10591334679160874,
                -0.4034345040043418
            ],
            [
                0.015982206165063118,
                0.29133316071291626,
                -0.11319704304114643,
                0.0629475357463471,
                0.14862779539836307,
                0.1665554713612413,
                -0.09435367917381057,
                -0.38415442361568014,
                0.5872318426639535,
                0.3812866138057094,
                0.27634488740768676,
                -0.16150874149450198,
                -0.010663128895867206,
                -0.20307278616191088,
